digraph Tree {
node [shape=box, style="filled, rounded", color="black", fontname="helvetica"] ;
edge [fontname="helvetica"] ;
0 [label="Pclass <= 2.5\ngini = 0.473\nsamples = 891\nvalue = [549, 342]\nclass = survive", fillcolor="#f5cfb4"] ;
1 [label="IsFemale <= 0.5\ngini = 0.493\nsamples = 400\nvalue = [177, 223]\nclass = die", fillcolor="#d6ebfa"] ;
0 -> 1 [labeldistance=2.5, labelangle=45, headlabel="True"] ;
2 [label="Fare <= 26.269\ngini = 0.394\nsamples = 230\nvalue = [168, 62]\nclass = survive", fillcolor="#efb082"] ;
1 -> 2 ;
3 [label="Age <= 9.5\ngini = 0.226\nsamples = 100\nvalue = [87, 13]\nclass = survive", fillcolor="#e99457"] ;
2 -> 3 ;
4 [label="gini = 0.0\nsamples = 5\nvalue = [0, 5]\nclass = die", fillcolor="#399de5"] ;
3 -> 4 ;
5 [label="Age <= 60.5\ngini = 0.154\nsamples = 95\nvalue = [87, 8]\nclass = survive", fillcolor="#e78d4b"] ;
3 -> 5 ;
6 [label="Age <= 42.5\ngini = 0.142\nsamples = 91\nvalue = [84, 7]\nclass = survive", fillcolor="#e78c49"] ;
5 -> 6 ;
7 [label="gini = 0.167\nsamples = 76\nvalue = [69, 7]\nclass = survive", fillcolor="#e88e4d"] ;
6 -> 7 ;
8 [label="gini = 0.0\nsamples = 15\nvalue = [15, 0]\nclass = survive", fillcolor="#e58139"] ;
6 -> 8 ;
9 [label="Pclass <= 1.5\ngini = 0.375\nsamples = 4\nvalue = [3, 1]\nclass = survive", fillcolor="#eeab7b"] ;
5 -> 9 ;
10 [label="gini = 0.0\nsamples = 1\nvalue = [1, 0]\nclass = survive", fillcolor="#e58139"] ;
9 -> 10 ;
11 [label="gini = 0.444\nsamples = 3\nvalue = [2, 1]\nclass = survive", fillcolor="#f2c09c"] ;
9 -> 11 ;
12 [label="Age <= 17.5\ngini = 0.47\nsamples = 130\nvalue = [81, 49]\nclass = survive", fillcolor="#f5cdb1"] ;
2 -> 12 ;
13 [label="gini = 0.0\nsamples = 8\nvalue = [0, 8]\nclass = die", fillcolor="#399de5"] ;
12 -> 13 ;
14 [label="Pclass <= 1.5\ngini = 0.446\nsamples = 122\nvalue = [81, 41]\nclass = survive", fillcolor="#f2c19d"] ;
12 -> 14 ;
15 [label="Fare <= 26.469\ngini = 0.471\nsamples = 108\nvalue = [67, 41]\nclass = survive", fillcolor="#f5ceb2"] ;
14 -> 15 ;
16 [label="gini = 0.0\nsamples = 4\nvalue = [0, 4]\nclass = die", fillcolor="#399de5"] ;
15 -> 16 ;
17 [label="gini = 0.458\nsamples = 104\nvalue = [67, 37]\nclass = survive", fillcolor="#f3c7a6"] ;
15 -> 17 ;
18 [label="gini = 0.0\nsamples = 14\nvalue = [14, 0]\nclass = survive", fillcolor="#e58139"] ;
14 -> 18 ;
19 [label="Fare <= 28.856\ngini = 0.1\nsamples = 170\nvalue = [9, 161]\nclass = die", fillcolor="#44a2e6"] ;
1 -> 19 ;
20 [label="Age <= 56.0\ngini = 0.18\nsamples = 70\nvalue = [7, 63]\nclass = die", fillcolor="#4fa8e8"] ;
19 -> 20 ;
21 [label="Fare <= 28.231\ngini = 0.161\nsamples = 68\nvalue = [6, 62]\nclass = die", fillcolor="#4ca6e8"] ;
20 -> 21 ;
22 [label="Fare <= 12.825\ngini = 0.138\nsamples = 67\nvalue = [5, 62]\nclass = die", fillcolor="#49a5e7"] ;
21 -> 22 ;
23 [label="gini = 0.0\nsamples = 11\nvalue = [0, 11]\nclass = die", fillcolor="#399de5"] ;
22 -> 23 ;
24 [label="gini = 0.163\nsamples = 56\nvalue = [5, 51]\nclass = die", fillcolor="#4ca7e8"] ;
22 -> 24 ;
25 [label="gini = 0.0\nsamples = 1\nvalue = [1, 0]\nclass = survive", fillcolor="#e58139"] ;
21 -> 25 ;
26 [label="Age <= 57.5\ngini = 0.5\nsamples = 2\nvalue = [1, 1]\nclass = survive", fillcolor="#ffffff"] ;
20 -> 26 ;
27 [label="gini = 0.0\nsamples = 1\nvalue = [1, 0]\nclass = survive", fillcolor="#e58139"] ;
26 -> 27 ;
28 [label="gini = 0.0\nsamples = 1\nvalue = [0, 1]\nclass = die", fillcolor="#399de5"] ;
26 -> 28 ;
29 [label="Age <= 2.5\ngini = 0.039\nsamples = 100\nvalue = [2, 98]\nclass = die", fillcolor="#3d9fe6"] ;
19 -> 29 ;
30 [label="gini = 0.0\nsamples = 1\nvalue = [1, 0]\nclass = survive", fillcolor="#e58139"] ;
29 -> 30 ;
31 [label="SibSp <= 0.5\ngini = 0.02\nsamples = 99\nvalue = [1, 98]\nclass = die", fillcolor="#3b9ee5"] ;
29 -> 31 ;
32 [label="gini = 0.0\nsamples = 45\nvalue = [0, 45]\nclass = die", fillcolor="#399de5"] ;
31 -> 32 ;
33 [label="Fare <= 149.035\ngini = 0.036\nsamples = 54\nvalue = [1, 53]\nclass = die", fillcolor="#3d9fe5"] ;
31 -> 33 ;
34 [label="gini = 0.0\nsamples = 47\nvalue = [0, 47]\nclass = die", fillcolor="#399de5"] ;
33 -> 34 ;
35 [label="gini = 0.245\nsamples = 7\nvalue = [1, 6]\nclass = die", fillcolor="#5aade9"] ;
33 -> 35 ;
36 [label="IsFemale <= 0.5\ngini = 0.367\nsamples = 491\nvalue = [372, 119]\nclass = survive", fillcolor="#eda978"] ;
0 -> 36 [labeldistance=2.5, labelangle=-45, headlabel="False"] ;
37 [label="Fare <= 51.698\ngini = 0.234\nsamples = 347\nvalue = [300, 47]\nclass = survive", fillcolor="#e99558"] ;
36 -> 37 ;
38 [label="Age <= 13.0\ngini = 0.219\nsamples = 336\nvalue = [294, 42]\nclass = survive", fillcolor="#e99355"] ;
37 -> 38 ;
39 [label="SibSp <= 2.0\ngini = 0.461\nsamples = 25\nvalue = [16, 9]\nclass = survive", fillcolor="#f4c8a8"] ;
38 -> 39 ;
40 [label="Parch <= 0.5\ngini = 0.198\nsamples = 9\nvalue = [1, 8]\nclass = die", fillcolor="#52a9e8"] ;
39 -> 40 ;
41 [label="gini = 0.5\nsamples = 2\nvalue = [1, 1]\nclass = survive", fillcolor="#ffffff"] ;
40 -> 41 ;
42 [label="gini = 0.0\nsamples = 7\nvalue = [0, 7]\nclass = die", fillcolor="#399de5"] ;
40 -> 42 ;
43 [label="Fare <= 31.331\ngini = 0.117\nsamples = 16\nvalue = [15, 1]\nclass = survive", fillcolor="#e78946"] ;
39 -> 43 ;
44 [label="gini = 0.0\nsamples = 8\nvalue = [8, 0]\nclass = survive", fillcolor="#e58139"] ;
43 -> 44 ;
45 [label="gini = 0.219\nsamples = 8\nvalue = [7, 1]\nclass = survive", fillcolor="#e99355"] ;
43 -> 45 ;
46 [label="Age <= 32.5\ngini = 0.19\nsamples = 311\nvalue = [278, 33]\nclass = survive", fillcolor="#e89051"] ;
38 -> 46 ;
47 [label="Age <= 30.75\ngini = 0.214\nsamples = 246\nvalue = [216, 30]\nclass = survive", fillcolor="#e99254"] ;
46 -> 47 ;
48 [label="gini = 0.198\nsamples = 234\nvalue = [208, 26]\nclass = survive", fillcolor="#e89152"] ;
47 -> 48 ;
49 [label="gini = 0.444\nsamples = 12\nvalue = [8, 4]\nclass = survive", fillcolor="#f2c09c"] ;
47 -> 49 ;
50 [label="SibSp <= 0.5\ngini = 0.088\nsamples = 65\nvalue = [62, 3]\nclass = survive", fillcolor="#e68743"] ;
46 -> 50 ;
51 [label="gini = 0.101\nsamples = 56\nvalue = [53, 3]\nclass = survive", fillcolor="#e68844"] ;
50 -> 51 ;
52 [label="gini = 0.0\nsamples = 9\nvalue = [9, 0]\nclass = survive", fillcolor="#e58139"] ;
50 -> 52 ;
53 [label="SibSp <= 4.0\ngini = 0.496\nsamples = 11\nvalue = [6, 5]\nclass = survive", fillcolor="#fbeade"] ;
37 -> 53 ;
54 [label="Age <= 30.85\ngini = 0.408\nsamples = 7\nvalue = [2, 5]\nclass = die", fillcolor="#88c4ef"] ;
53 -> 54 ;
55 [label="Age <= 27.0\ngini = 0.48\nsamples = 5\nvalue = [2, 3]\nclass = die", fillcolor="#bddef6"] ;
54 -> 55 ;
56 [label="gini = 0.0\nsamples = 1\nvalue = [0, 1]\nclass = die", fillcolor="#399de5"] ;
55 -> 56 ;
57 [label="gini = 0.5\nsamples = 4\nvalue = [2, 2]\nclass = survive", fillcolor="#ffffff"] ;
55 -> 57 ;
58 [label="gini = 0.0\nsamples = 2\nvalue = [0, 2]\nclass = die", fillcolor="#399de5"] ;
54 -> 58 ;
59 [label="gini = 0.0\nsamples = 4\nvalue = [4, 0]\nclass = survive", fillcolor="#e58139"] ;
53 -> 59 ;
60 [label="SibSp <= 2.5\ngini = 0.5\nsamples = 144\nvalue = [72, 72]\nclass = survive", fillcolor="#ffffff"] ;
36 -> 60 ;
61 [label="Age <= 38.5\ngini = 0.495\nsamples = 126\nvalue = [57, 69]\nclass = die", fillcolor="#ddeefa"] ;
60 -> 61 ;
62 [label="Age <= 7.0\ngini = 0.481\nsamples = 114\nvalue = [46, 68]\nclass = die", fillcolor="#bfdff7"] ;
61 -> 62 ;
63 [label="Fare <= 10.798\ngini = 0.165\nsamples = 11\nvalue = [1, 10]\nclass = die", fillcolor="#4da7e8"] ;
62 -> 63 ;
64 [label="gini = 0.0\nsamples = 1\nvalue = [1, 0]\nclass = survive", fillcolor="#e58139"] ;
63 -> 64 ;
65 [label="gini = 0.0\nsamples = 10\nvalue = [0, 10]\nclass = die", fillcolor="#399de5"] ;
63 -> 65 ;
66 [label="Fare <= 7.888\ngini = 0.492\nsamples = 103\nvalue = [45, 58]\nclass = die", fillcolor="#d3e9f9"] ;
62 -> 66 ;
67 [label="gini = 0.393\nsamples = 41\nvalue = [11, 30]\nclass = die", fillcolor="#82c1ef"] ;
66 -> 67 ;
68 [label="gini = 0.495\nsamples = 62\nvalue = [34, 28]\nclass = survive", fillcolor="#fae9dc"] ;
66 -> 68 ;
69 [label="Age <= 55.5\ngini = 0.153\nsamples = 12\nvalue = [11, 1]\nclass = survive", fillcolor="#e78c4b"] ;
61 -> 69 ;
70 [label="gini = 0.0\nsamples = 11\nvalue = [11, 0]\nclass = survive", fillcolor="#e58139"] ;
69 -> 70 ;
71 [label="gini = 0.0\nsamples = 1\nvalue = [0, 1]\nclass = die", fillcolor="#399de5"] ;
69 -> 71 ;
72 [label="Parch <= 0.5\ngini = 0.278\nsamples = 18\nvalue = [15, 3]\nclass = survive", fillcolor="#ea9a61"] ;
60 -> 72 ;
73 [label="gini = 0.0\nsamples = 1\nvalue = [0, 1]\nclass = die", fillcolor="#399de5"] ;
72 -> 73 ;
74 [label="Parch <= 1.5\ngini = 0.208\nsamples = 17\nvalue = [15, 2]\nclass = survive", fillcolor="#e89253"] ;
72 -> 74 ;
75 [label="gini = 0.0\nsamples = 5\nvalue = [5, 0]\nclass = survive", fillcolor="#e58139"] ;
74 -> 75 ;
76 [label="Fare <= 17.912\ngini = 0.278\nsamples = 12\nvalue = [10, 2]\nclass = survive", fillcolor="#ea9a61"] ;
74 -> 76 ;
77 [label="gini = 0.0\nsamples = 1\nvalue = [0, 1]\nclass = die", fillcolor="#399de5"] ;
76 -> 77 ;
78 [label="gini = 0.165\nsamples = 11\nvalue = [10, 1]\nclass = survive", fillcolor="#e88e4d"] ;
76 -> 78 ;
}