digraph Tree {
node [shape=box, style="filled, rounded", color="black", fontname="helvetica"] ;
edge [fontname="helvetica"] ;
0 [label="TestPrep <= 1.5\ngini = 0.994\nsamples = 19243\nvalue = [1, 1, 1, 1, 1, 2, 1, 1, 2, 1, 2, 1, 2, 4\n1, 2, 3, 3, 3, 2, 3, 2, 6, 5, 1, 6, 1, 2\n1, 1, 4, 4, 3, 4, 3, 7, 6, 8, 6, 5, 6, 6\n5, 12, 15, 10, 5, 9, 13, 14, 11, 8, 15, 14, 18\n10, 15, 20, 16, 20, 18, 23, 18, 20, 15, 22, 21\n27, 29, 31, 27, 39, 30, 31, 40, 41, 49, 43, 49\n31, 44, 47, 49, 47, 46, 47, 40, 60, 56, 58, 77\n67, 49, 51, 87, 76, 79, 77, 73, 86, 76, 97, 100\n102, 86, 116, 93, 107, 105, 105, 104, 105, 122\n114, 118, 113, 93, 123, 138, 143, 143, 146, 121\n132, 145, 145, 146, 143, 153, 136, 133, 158, 144\n159, 167, 158, 151, 170, 145, 156, 170, 168, 162\n145, 163, 172, 169, 173, 151, 178, 176, 175, 165\n184, 162, 192, 177, 171, 175, 144, 161, 149, 180\n147, 160, 163, 178, 167, 144, 133, 156, 130, 143\n155, 157, 147, 168, 157, 141, 142, 137, 150, 160\n143, 147, 142, 135, 104, 133, 145, 104, 126, 113\n130, 126, 122, 119, 124, 91, 114, 102, 119, 81\n114, 103, 101, 101, 92, 78, 91, 86, 71, 88, 83\n77, 75, 79, 75, 74, 76, 67, 60, 63, 58, 50, 53\n53, 68, 46, 43, 41, 43, 53, 39, 49, 46, 32, 37\n34, 36, 24, 32, 22, 24, 17, 22, 22, 11, 31]\nclass = 274", fillcolor="#ffffff"] ;
1 [label="LunchType <= 1.5\ngini = 0.993\nsamples = 12587\nvalue = [1, 1, 1, 1, 1, 2, 1, 1, 2, 1, 2, 0, 2, 4\n1, 2, 3, 2, 2, 2, 3, 2, 6, 3, 1, 5, 1, 1\n1, 1, 2, 3, 3, 4, 3, 6, 6, 8, 5, 5, 4, 5\n5, 10, 12, 9, 3, 8, 11, 12, 9, 7, 15, 13, 18\n10, 14, 16, 12, 16, 16, 22, 17, 11, 13, 18, 16\n26, 25, 25, 21, 30, 29, 26, 32, 30, 39, 31, 38\n27, 40, 35, 40, 38, 38, 34, 30, 49, 42, 47, 64\n48, 40, 40, 67, 68, 57, 64, 52, 72, 60, 77, 75\n75, 66, 89, 69, 89, 81, 84, 81, 83, 97, 98, 83\n80, 67, 92, 102, 103, 102, 107, 86, 96, 103, 113\n100, 104, 119, 93, 93, 118, 98, 109, 119, 112, 104\n130, 108, 109, 124, 125, 113, 104, 118, 113, 111\n129, 98, 114, 125, 122, 105, 116, 105, 121, 111\n109, 115, 101, 105, 92, 118, 91, 109, 105, 105\n107, 91, 80, 93, 82, 91, 95, 99, 93, 89, 93, 81\n88, 84, 87, 100, 74, 82, 69, 82, 61, 76, 89, 58\n86, 60, 75, 69, 65, 62, 70, 55, 63, 58, 67, 54\n59, 61, 54, 62, 41, 43, 44, 45, 40, 47, 39, 36\n37, 41, 38, 34, 41, 30, 34, 29, 22, 26, 27, 22\n28, 21, 18, 16, 16, 19, 17, 16, 16, 11, 11, 13\n13, 5, 8, 5, 7, 2, 7, 6, 0, 7]\nclass = 212", fillcolor="#ffffff"] ;
0 -> 1 [labeldistance=2.5, labelangle=45, headlabel="True"] ;
2 [label="ParentEduc <= 2.5\ngini = 0.993\nsamples = 4429\nvalue = [1, 1, 1, 1, 1, 2, 1, 1, 2, 1, 2, 0, 2, 3\n1, 2, 3, 1, 2, 1, 3, 1, 5, 3, 0, 2, 1, 1\n1, 1, 1, 3, 3, 4, 3, 4, 2, 5, 4, 4, 3, 3\n4, 9, 8, 8, 1, 6, 8, 11, 7, 4, 7, 12, 14, 4\n8, 12, 10, 9, 13, 13, 13, 4, 11, 11, 9, 17, 16\n17, 16, 20, 14, 14, 15, 16, 21, 16, 21, 14, 23\n21, 32, 17, 25, 20, 19, 30, 29, 29, 37, 32, 19\n23, 39, 38, 30, 32, 28, 41, 34, 47, 41, 45, 29\n48, 39, 39, 46, 46, 43, 38, 54, 48, 41, 44, 41\n43, 41, 43, 44, 45, 37, 34, 29, 48, 42, 48, 48\n35, 42, 47, 31, 43, 43, 41, 35, 48, 36, 40, 48\n50, 40, 29, 38, 42, 41, 43, 25, 40, 41, 41, 33\n39, 31, 40, 33, 31, 36, 35, 26, 27, 37, 24, 27\n33, 29, 30, 22, 20, 24, 16, 21, 21, 29, 18, 21\n25, 14, 13, 17, 23, 21, 14, 14, 19, 20, 10, 18\n20, 12, 26, 10, 21, 18, 13, 11, 12, 9, 15, 10\n7, 11, 6, 5, 8, 9, 7, 7, 4, 4, 4, 3, 3, 2\n3, 4, 2, 0, 1, 3, 3, 2, 1, 3, 1, 1, 5, 0\n0, 1, 0, 1, 0, 0, 1, 1, 0, 0, 1, 0, 0, 0\n0, 0, 0, 0, 0, 0]\nclass = 242", fillcolor="#ffffff"] ;
1 -> 2 ;
3 [label="gini = 0.992\nsamples = 1728\nvalue = [1, 1, 0, 1, 0, 2, 0, 0, 2, 1, 2, 0, 2, 2\n1, 2, 3, 1, 1, 1, 1, 1, 2, 3, 0, 2, 0, 1\n0, 1, 1, 3, 2, 1, 3, 1, 2, 5, 4, 2, 2, 2\n1, 5, 5, 3, 1, 5, 3, 5, 6, 1, 5, 4, 11, 2\n4, 9, 6, 4, 6, 7, 7, 0, 6, 7, 5, 10, 7, 9\n8, 11, 7, 8, 4, 9, 12, 12, 12, 4, 13, 10, 21\n11, 9, 6, 10, 12, 19, 12, 24, 14, 9, 13, 16\n16, 14, 12, 13, 22, 13, 17, 18, 23, 17, 23, 23\n20, 19, 21, 18, 19, 14, 22, 15, 20, 16, 15, 17\n21, 17, 21, 14, 16, 13, 22, 20, 18, 19, 14, 17\n16, 9, 15, 12, 18, 16, 17, 15, 10, 25, 13, 12\n12, 13, 9, 17, 14, 11, 21, 15, 11, 8, 11, 9\n16, 10, 8, 6, 17, 4, 9, 6, 8, 6, 11, 8, 7, 5\n6, 7, 6, 4, 8, 14, 2, 7, 3, 5, 5, 7, 4, 5\n3, 7, 5, 4, 2, 6, 3, 2, 2, 0, 3, 1, 6, 2\n1, 3, 3, 2, 1, 1, 0, 2, 2, 0, 0, 0, 0, 0\n0, 0, 2, 0, 0, 1, 0, 0, 0, 0, 0, 0, 0, 0\n0, 0, 0, 0, 0, 0, 0, 0, 0, 0, 0, 0, 0, 0\n0, 0, 0, 0, 0, 0, 0, 0, 0, 0]\nclass = 157", fillcolor="#ffffff"] ;
2 -> 3 ;
4 [label="gini = 0.993\nsamples = 2701\nvalue = [0, 0, 1, 0, 1, 0, 1, 1, 0, 0, 0, 0, 0, 1\n0, 0, 0, 0, 1, 0, 2, 0, 3, 0, 0, 0, 1, 0\n1, 0, 0, 0, 1, 3, 0, 3, 0, 0, 0, 2, 1, 1\n3, 4, 3, 5, 0, 1, 5, 6, 1, 3, 2, 8, 3, 2\n4, 3, 4, 5, 7, 6, 6, 4, 5, 4, 4, 7, 9, 8\n8, 9, 7, 6, 11, 7, 9, 4, 9, 10, 10, 11, 11\n6, 16, 14, 9, 18, 10, 17, 13, 18, 10, 10, 23\n22, 16, 20, 15, 19, 21, 30, 23, 22, 12, 25, 16\n19, 27, 25, 25, 19, 40, 26, 26, 24, 25, 28, 24\n22, 27, 24, 23, 18, 16, 26, 22, 30, 29, 21, 25\n31, 22, 28, 31, 23, 19, 31, 21, 30, 23, 37, 28\n17, 25, 33, 24, 29, 14, 19, 26, 30, 25, 28, 22\n24, 23, 23, 30, 18, 22, 18, 31, 16, 21, 22, 21\n23, 17, 14, 17, 10, 17, 13, 15, 16, 14, 22, 9\n8, 10, 19, 16, 11, 7, 14, 16, 8, 12, 17, 10\n24, 10, 18, 17, 7, 9, 11, 6, 12, 8, 6, 10, 6\n3, 6, 9, 7, 7, 4, 4, 4, 3, 1, 2, 3, 3, 2\n0, 1, 3, 3, 2, 1, 3, 1, 1, 5, 0, 0, 1, 0\n1, 0, 0, 1, 1, 0, 0, 1, 0, 0, 0, 0, 0, 0\n0, 0, 0]\nclass = 242", fillcolor="#ffffff"] ;
2 -> 4 ;
5 [label="ParentEduc <= 3.5\ngini = 0.993\nsamples = 8158\nvalue = [0, 0, 0, 0, 0, 0, 0, 0, 0, 0, 0, 0, 0, 1\n0, 0, 0, 1, 0, 1, 0, 1, 1, 0, 1, 3, 0, 0\n0, 0, 1, 0, 0, 0, 0, 2, 4, 3, 1, 1, 1, 2\n1, 1, 4, 1, 2, 2, 3, 1, 2, 3, 8, 1, 4, 6\n6, 4, 2, 7, 3, 9, 4, 7, 2, 7, 7, 9, 9, 8\n5, 10, 15, 12, 17, 14, 18, 15, 17, 13, 17, 14\n8, 21, 13, 14, 11, 19, 13, 18, 27, 16, 21, 17\n28, 30, 27, 32, 24, 31, 26, 30, 34, 30, 37, 41\n30, 50, 35, 38, 38, 45, 43, 50, 42, 36, 26, 49\n61, 60, 58, 62, 49, 62, 74, 65, 58, 56, 71, 58\n51, 71, 67, 66, 76, 71, 69, 82, 72, 69, 76, 75\n73, 75, 80, 71, 70, 86, 73, 74, 84, 81, 72, 77\n74, 81, 78, 78, 79, 66, 79, 65, 81, 67, 82, 72\n76, 77, 69, 60, 69, 66, 70, 74, 70, 75, 68, 68\n67, 75, 67, 64, 79, 60, 68, 50, 62, 51, 58, 69\n46, 60, 50, 54, 51, 52, 51, 58, 46, 48, 48, 60\n43, 53, 56, 46, 53, 34, 36, 40, 41, 36, 44, 36\n34, 34, 37, 36, 34, 40, 27, 31, 27, 21, 23, 26\n21, 23, 21, 18, 15, 16, 18, 17, 16, 15, 10, 11\n13, 12, 5, 8, 5, 7, 2, 7, 6, 0, 7]\nclass = 289", fillcolor="#ffffff"] ;
1 -> 5 ;
6 [label="gini = 0.993\nsamples = 5067\nvalue = [0, 0, 0, 0, 0, 0, 0, 0, 0, 0, 0, 0, 0, 1\n0, 0, 0, 0, 0, 1, 0, 1, 0, 0, 1, 3, 0, 0\n0, 0, 1, 0, 0, 0, 0, 2, 4, 3, 1, 1, 1, 2\n1, 1, 3, 1, 1, 2, 2, 1, 2, 2, 6, 1, 3, 6\n5, 4, 2, 4, 2, 6, 4, 6, 2, 6, 7, 7, 8, 8\n4, 9, 10, 10, 15, 11, 14, 9, 16, 11, 14, 12, 7\n18, 8, 11, 8, 17, 8, 10, 21, 15, 17, 15, 16\n23, 18, 25, 21, 22, 21, 22, 25, 28, 27, 30, 23\n35, 29, 30, 28, 32, 33, 31, 29, 28, 20, 36, 48\n40, 40, 42, 31, 44, 52, 45, 43, 44, 47, 41, 34\n49, 40, 41, 49, 48, 39, 59, 45, 43, 48, 48, 50\n52, 61, 44, 48, 52, 45, 46, 58, 55, 45, 49, 44\n60, 54, 43, 58, 38, 51, 45, 48, 39, 58, 43, 41\n50, 44, 35, 40, 41, 34, 45, 47, 45, 35, 36, 42\n42, 41, 38, 36, 40, 46, 30, 35, 32, 39, 35, 23\n30, 20, 28, 24, 29, 34, 27, 20, 24, 25, 34, 21\n34, 35, 20, 24, 17, 20, 24, 18, 18, 22, 15, 17\n17, 17, 19, 13, 17, 10, 13, 8, 10, 8, 9, 9, 8\n5, 4, 5, 6, 5, 7, 6, 6, 2, 1, 3, 3, 1, 2\n2, 2, 0, 2, 2, 0, 0]\nclass = 149", fillcolor="#ffffff"] ;
5 -> 6 ;
7 [label="gini = 0.993\nsamples = 3091\nvalue = [0, 0, 0, 0, 0, 0, 0, 0, 0, 0, 0, 0, 0, 0\n0, 0, 0, 1, 0, 0, 0, 0, 1, 0, 0, 0, 0, 0\n0, 0, 0, 0, 0, 0, 0, 0, 0, 0, 0, 0, 0, 0\n0, 0, 1, 0, 1, 0, 1, 0, 0, 1, 2, 0, 1, 0\n1, 0, 0, 3, 1, 3, 0, 1, 0, 1, 0, 2, 1, 0\n1, 1, 5, 2, 2, 3, 4, 6, 1, 2, 3, 2, 1, 3\n5, 3, 3, 2, 5, 8, 6, 1, 4, 2, 12, 7, 9, 7\n3, 9, 5, 8, 9, 2, 10, 11, 7, 15, 6, 8, 10\n13, 10, 19, 13, 8, 6, 13, 13, 20, 18, 20, 18\n18, 22, 20, 15, 12, 24, 17, 17, 22, 27, 25, 27\n23, 30, 23, 27, 26, 28, 27, 23, 23, 19, 27, 22\n34, 28, 28, 26, 26, 27, 28, 30, 21, 24, 35, 21\n28, 28, 20, 33, 28, 24, 29, 35, 27, 25, 25, 29\n25, 36, 29, 23, 30, 33, 32, 25, 33, 26, 26, 43\n20, 22, 20, 27, 19, 19, 34, 23, 30, 30, 26, 27\n23, 17, 31, 26, 24, 23, 26, 22, 19, 21, 26, 29\n17, 16, 16, 23, 18, 22, 21, 17, 17, 20, 17, 21\n23, 17, 18, 19, 11, 15, 17, 12, 15, 16, 14, 10\n10, 13, 10, 10, 9, 8, 10, 10, 9, 4, 6, 3, 5\n2, 5, 4, 0, 7]\nclass = 125", fillcolor="#ffffff"] ;
5 -> 7 ;
8 [label="ParentEduc <= 3.5\ngini = 0.993\nsamples = 6656\nvalue = [0, 0, 0, 0, 0, 0, 0, 0, 0, 0, 0, 1, 0, 0\n0, 0, 0, 1, 1, 0, 0, 0, 0, 2, 0, 1, 0, 1\n0, 0, 2, 1, 0, 0, 0, 1, 0, 0, 1, 0, 2, 1\n0, 2, 3, 1, 2, 1, 2, 2, 2, 1, 0, 1, 0, 0\n1, 4, 4, 4, 2, 1, 1, 9, 2, 4, 5, 1, 4, 6\n6, 9, 1, 5, 8, 11, 10, 12, 11, 4, 4, 12, 9\n9, 8, 13, 10, 11, 14, 11, 13, 19, 9, 11, 20, 8\n22, 13, 21, 14, 16, 20, 25, 27, 20, 27, 24, 18\n24, 21, 23, 22, 25, 16, 35, 33, 26, 31, 36, 40\n41, 39, 35, 36, 42, 32, 46, 39, 34, 43, 40, 40\n46, 50, 48, 46, 47, 40, 37, 47, 46, 43, 49, 41\n45, 59, 58, 44, 53, 64, 51, 53, 60, 68, 57, 71\n66, 62, 60, 43, 56, 57, 62, 56, 51, 58, 73, 60\n53, 53, 63, 48, 52, 60, 58, 54, 79, 64, 60, 54\n53, 63, 60, 69, 65, 73, 53, 43, 57, 56, 46, 40\n53, 55, 57, 57, 57, 54, 36, 51, 44, 52, 27, 55\n42, 47, 39, 51, 35, 47, 41, 31, 41, 44, 41, 38\n38, 37, 40, 35, 37, 26, 34, 36, 24, 26, 31, 40\n25, 25, 25, 27, 34, 22, 33, 30, 21, 26, 21, 23\n19, 24, 17, 17, 15, 15, 16, 11, 24]\nclass = 120", fillcolor="#ffffff"] ;
0 -> 8 [labeldistance=2.5, labelangle=-45, headlabel="False"] ;
9 [label="LunchType <= 1.5\ngini = 0.993\nsamples = 4088\nvalue = [0, 0, 0, 0, 0, 0, 0, 0, 0, 0, 0, 1, 0, 0\n0, 0, 0, 1, 1, 0, 0, 0, 0, 2, 0, 1, 0, 0\n0, 0, 2, 1, 0, 0, 0, 0, 0, 0, 0, 0, 2, 1\n0, 1, 3, 1, 2, 0, 2, 2, 2, 1, 0, 0, 0, 0\n1, 3, 3, 2, 2, 1, 1, 7, 2, 4, 4, 1, 4, 5\n4, 5, 1, 4, 6, 4, 8, 9, 11, 2, 2, 9, 8, 7\n8, 11, 8, 10, 13, 10, 8, 17, 9, 8, 18, 7, 15\n11, 15, 13, 10, 15, 21, 19, 14, 20, 18, 13, 19\n14, 17, 16, 20, 13, 27, 24, 22, 15, 26, 29, 30\n27, 26, 25, 33, 23, 39, 33, 25, 30, 32, 25, 31\n30, 29, 31, 30, 22, 26, 33, 32, 25, 31, 27, 29\n41, 41, 23, 39, 42, 31, 36, 41, 45, 40, 39, 35\n35, 44, 31, 30, 37, 38, 35, 29, 36, 55, 43, 29\n40, 31, 30, 31, 42, 35, 33, 52, 40, 30, 29, 33\n45, 37, 51, 39, 37, 24, 27, 31, 32, 30, 21, 27\n28, 34, 29, 38, 26, 16, 27, 26, 27, 12, 27, 18\n24, 19, 25, 24, 24, 18, 17, 25, 23, 22, 29, 21\n16, 19, 16, 19, 19, 17, 14, 10, 10, 12, 17, 14\n11, 14, 15, 12, 8, 15, 13, 12, 13, 10, 5, 7, 9\n10, 5, 5, 3, 5, 2, 7]\nclass = 139", fillcolor="#ffffff"] ;
8 -> 9 ;
10 [label="gini = 0.992\nsamples = 1422\nvalue = [0, 0, 0, 0, 0, 0, 0, 0, 0, 0, 0, 1, 0, 0\n0, 0, 0, 1, 1, 0, 0, 0, 0, 2, 0, 1, 0, 0\n0, 0, 2, 1, 0, 0, 0, 0, 0, 0, 0, 0, 2, 1\n0, 1, 1, 1, 2, 0, 1, 2, 2, 1, 0, 0, 0, 0\n1, 3, 3, 2, 1, 1, 1, 4, 2, 3, 3, 0, 3, 4\n3, 3, 1, 1, 4, 3, 7, 7, 9, 1, 2, 7, 6, 5\n4, 5, 5, 6, 6, 6, 3, 6, 7, 5, 10, 5, 10, 8\n9, 6, 5, 7, 14, 10, 5, 10, 14, 10, 8, 10, 8\n10, 11, 6, 16, 10, 15, 6, 16, 11, 15, 14, 13\n10, 20, 7, 24, 9, 13, 14, 14, 11, 13, 16, 11\n11, 13, 8, 12, 17, 19, 13, 15, 11, 9, 15, 16\n9, 13, 17, 10, 10, 16, 19, 16, 15, 9, 7, 19\n12, 7, 14, 11, 12, 10, 12, 15, 29, 9, 8, 12, 9\n11, 9, 9, 7, 16, 13, 5, 9, 8, 13, 9, 10, 10\n9, 8, 5, 7, 7, 8, 6, 6, 7, 8, 4, 10, 5, 2\n6, 5, 5, 3, 8, 6, 2, 4, 7, 4, 2, 3, 2, 4\n9, 6, 2, 4, 1, 3, 1, 3, 2, 2, 4, 0, 0, 1\n2, 0, 0, 0, 0, 0, 0, 0, 0, 0, 1, 0, 0, 0\n0, 0, 0, 0, 0, 0, 0, 0]\nclass = 293", fillcolor="#fffeff"] ;
9 -> 10 ;
11 [label="gini = 0.993\nsamples = 2666\nvalue = [0, 0, 0, 0, 0, 0, 0, 0, 0, 0, 0, 0, 0, 0\n0, 0, 0, 0, 0, 0, 0, 0, 0, 0, 0, 0, 0, 0\n0, 0, 0, 0, 0, 0, 0, 0, 0, 0, 0, 0, 0, 0\n0, 0, 2, 0, 0, 0, 1, 0, 0, 0, 0, 0, 0, 0\n0, 0, 0, 0, 1, 0, 0, 3, 0, 1, 1, 1, 1, 1\n1, 2, 0, 3, 2, 1, 1, 2, 2, 1, 0, 2, 2, 2\n4, 6, 3, 4, 7, 4, 5, 11, 2, 3, 8, 2, 5, 3\n6, 7, 5, 8, 7, 9, 9, 10, 4, 3, 11, 4, 9, 6\n9, 7, 11, 14, 7, 9, 10, 18, 15, 13, 13, 15, 13\n16, 15, 24, 12, 16, 18, 14, 18, 14, 18, 20, 17\n14, 14, 16, 13, 12, 16, 16, 20, 26, 25, 14, 26\n25, 21, 26, 25, 26, 24, 24, 26, 28, 25, 19, 23\n23, 27, 23, 19, 24, 40, 14, 20, 32, 19, 21, 20\n33, 26, 26, 36, 27, 25, 20, 25, 32, 28, 41, 29\n28, 16, 22, 24, 25, 22, 15, 21, 21, 26, 25, 28\n21, 14, 21, 21, 22, 9, 19, 12, 22, 15, 18, 20\n22, 15, 15, 21, 14, 16, 27, 17, 15, 16, 15, 16\n17, 15, 10, 10, 10, 11, 15, 14, 11, 14, 15, 12\n8, 15, 13, 12, 12, 10, 5, 7, 9, 10, 5, 5, 3\n5, 2, 7]\nclass = 136", fillcolor="#ffffff"] ;
9 -> 11 ;
12 [label="LunchType <= 1.5\ngini = 0.993\nsamples = 2568\nvalue = [0, 0, 0, 0, 0, 0, 0, 0, 0, 0, 0, 0, 0, 0\n0, 0, 0, 0, 0, 0, 0, 0, 0, 0, 0, 0, 0, 1\n0, 0, 0, 0, 0, 0, 0, 1, 0, 0, 1, 0, 0, 0\n0, 1, 0, 0, 0, 1, 0, 0, 0, 0, 0, 1, 0, 0\n0, 1, 1, 2, 0, 0, 0, 2, 0, 0, 1, 0, 0, 1\n2, 4, 0, 1, 2, 7, 2, 3, 0, 2, 2, 3, 1, 2\n0, 2, 2, 1, 1, 1, 5, 2, 0, 3, 2, 1, 7, 2\n6, 1, 6, 5, 4, 8, 6, 7, 6, 5, 5, 7, 6, 6\n5, 3, 8, 9, 4, 16, 10, 11, 11, 12, 9, 11, 9\n9, 7, 6, 9, 13, 8, 15, 15, 20, 19, 15, 17, 18\n11, 14, 14, 18, 18, 14, 16, 18, 17, 21, 14, 22\n20, 17, 19, 23, 17, 32, 31, 27, 16, 12, 26, 20\n24, 21, 22, 22, 18, 17, 24, 13, 32, 18, 21, 18\n23, 21, 27, 24, 30, 25, 20, 18, 23, 18, 26, 36\n29, 16, 26, 24, 16, 19, 26, 27, 23, 28, 19, 28\n20, 24, 18, 25, 15, 28, 24, 23, 20, 26, 11, 23\n23, 14, 16, 21, 19, 9, 17, 21, 21, 19, 18, 7\n17, 22, 14, 16, 19, 23, 11, 14, 11, 12, 22, 14\n18, 17, 9, 13, 11, 18, 12, 15, 7, 12, 10, 12\n11, 9, 17]\nclass = 264", fillcolor="#ffffff"] ;
8 -> 12 ;
13 [label="gini = 0.992\nsamples = 920\nvalue = [0, 0, 0, 0, 0, 0, 0, 0, 0, 0, 0, 0, 0, 0\n0, 0, 0, 0, 0, 0, 0, 0, 0, 0, 0, 0, 0, 1\n0, 0, 0, 0, 0, 0, 0, 1, 0, 0, 1, 0, 0, 0\n0, 1, 0, 0, 0, 1, 0, 0, 0, 0, 0, 1, 0, 0\n0, 1, 0, 2, 0, 0, 0, 2, 0, 0, 1, 0, 0, 1\n1, 3, 0, 1, 2, 5, 2, 2, 0, 1, 1, 3, 1, 2\n0, 1, 1, 1, 1, 1, 4, 2, 0, 2, 2, 0, 5, 2\n5, 1, 2, 4, 3, 6, 3, 2, 4, 4, 3, 3, 4, 5\n4, 2, 4, 3, 2, 12, 6, 6, 3, 6, 6, 5, 5, 5\n3, 3, 4, 8, 4, 10, 9, 10, 13, 9, 8, 6, 1, 8\n8, 7, 10, 4, 9, 9, 8, 7, 4, 12, 11, 7, 8, 10\n7, 14, 12, 16, 6, 6, 17, 11, 10, 9, 9, 13, 8\n9, 6, 2, 8, 6, 9, 6, 12, 9, 7, 10, 9, 10, 8\n5, 11, 7, 5, 5, 8, 4, 6, 8, 5, 6, 8, 3, 7\n6, 5, 6, 10, 4, 5, 6, 5, 7, 11, 8, 6, 8, 4\n8, 2, 3, 5, 6, 3, 2, 4, 9, 7, 6, 3, 2, 4\n5, 1, 2, 2, 2, 3, 3, 1, 0, 5, 3, 1, 2, 1\n0, 0, 1, 1, 1, 1, 1, 1, 2, 1, 0, 1]\nclass = 124", fillcolor="#ffffff"] ;
12 -> 13 ;
14 [label="gini = 0.992\nsamples = 1648\nvalue = [0, 0, 0, 0, 0, 0, 0, 0, 0, 0, 0, 0, 0, 0\n0, 0, 0, 0, 0, 0, 0, 0, 0, 0, 0, 0, 0, 0\n0, 0, 0, 0, 0, 0, 0, 0, 0, 0, 0, 0, 0, 0\n0, 0, 0, 0, 0, 0, 0, 0, 0, 0, 0, 0, 0, 0\n0, 0, 1, 0, 0, 0, 0, 0, 0, 0, 0, 0, 0, 0\n1, 1, 0, 0, 0, 2, 0, 1, 0, 1, 1, 0, 0, 0\n0, 1, 1, 0, 0, 0, 1, 0, 0, 1, 0, 1, 2, 0\n1, 0, 4, 1, 1, 2, 3, 5, 2, 1, 2, 4, 2, 1\n1, 1, 4, 6, 2, 4, 4, 5, 8, 6, 3, 6, 4, 4\n4, 3, 5, 5, 4, 5, 6, 10, 6, 6, 9, 12, 10, 6\n6, 11, 8, 10, 7, 9, 9, 14, 10, 10, 9, 10, 11\n13, 10, 18, 19, 11, 10, 6, 9, 9, 14, 12, 13, 9\n10, 8, 18, 11, 24, 12, 12, 12, 11, 12, 20, 14\n21, 15, 12, 13, 12, 11, 21, 31, 21, 12, 20, 16\n11, 13, 18, 24, 16, 22, 14, 22, 10, 20, 13, 19\n10, 21, 13, 15, 14, 18, 7, 15, 21, 11, 11, 15\n16, 7, 13, 12, 14, 13, 15, 5, 13, 17, 13, 14\n17, 21, 8, 11, 10, 12, 17, 11, 17, 15, 8, 13\n11, 17, 11, 14, 6, 11, 9, 10, 10, 9, 16]\nclass = 264", fillcolor="#fffeff"] ;
12 -> 14 ;
}